digraph Tree {
node [shape=box, style="filled, rounded", color="black", fontname="helvetica"] ;
edge [fontname="helvetica"] ;
0 [label=<tcp.time_relative &le; 0.0<br/>gini = 0.178<br/>samples = 330122<br/>value = [297591, 32531]<br/>class = y<SUB>0</SUB>>, fillcolor="#e88f4f"] ;
1 [label=<ip.ttl &le; 63.5<br/>gini = 0.261<br/>samples = 37731<br/>value = [5822, 31909]<br/>class = y<SUB>1</SUB>>, fillcolor="#5dafea"] ;
0 -> 1 [labeldistance=2.5, labelangle=45, headlabel="True"] ;
2 [label=<gini = 0.0<br/>samples = 31909<br/>value = [0, 31909]<br/>class = y<SUB>1</SUB>>, fillcolor="#399de5"] ;
1 -> 2 ;
3 [label=<gini = 0.0<br/>samples = 5822<br/>value = [5822, 0]<br/>class = y<SUB>0</SUB>>, fillcolor="#e58139"] ;
1 -> 3 ;
4 [label=<tcp.ack &le; 0.5<br/>gini = 0.004<br/>samples = 292391<br/>value = [291769, 622]<br/>class = y<SUB>0</SUB>>, fillcolor="#e58139"] ;
0 -> 4 [labeldistance=2.5, labelangle=-45, headlabel="False"] ;
5 [label=<ip.ttl &le; 63.0<br/>gini = 0.216<br/>samples = 1729<br/>value = [1516, 213]<br/>class = y<SUB>0</SUB>>, fillcolor="#e99355"] ;
4 -> 5 ;
6 [label=<tcp.srcport &le; 16984.0<br/>gini = 0.412<br/>samples = 300<br/>value = [87, 213]<br/>class = y<SUB>1</SUB>>, fillcolor="#8ac5f0"] ;
5 -> 6 ;
7 [label=<gini = 0.0<br/>samples = 87<br/>value = [87, 0]<br/>class = y<SUB>0</SUB>>, fillcolor="#e58139"] ;
6 -> 7 ;
8 [label=<gini = 0.0<br/>samples = 213<br/>value = [0, 213]<br/>class = y<SUB>1</SUB>>, fillcolor="#399de5"] ;
6 -> 8 ;
9 [label=<gini = 0.0<br/>samples = 1429<br/>value = [1429, 0]<br/>class = y<SUB>0</SUB>>, fillcolor="#e58139"] ;
5 -> 9 ;
10 [label=<tcp.dstport &le; 21.5<br/>gini = 0.003<br/>samples = 290662<br/>value = [290253, 409]<br/>class = y<SUB>0</SUB>>, fillcolor="#e58139"] ;
4 -> 10 ;
11 [label=<ip.ttl &le; 63.0<br/>gini = 0.149<br/>samples = 889<br/>value = [817, 72]<br/>class = y<SUB>0</SUB>>, fillcolor="#e78c4a"] ;
10 -> 11 ;
12 [label=<gini = 0.0<br/>samples = 72<br/>value = [0, 72]<br/>class = y<SUB>1</SUB>>, fillcolor="#399de5"] ;
11 -> 12 ;
13 [label=<gini = 0.0<br/>samples = 817<br/>value = [817, 0]<br/>class = y<SUB>0</SUB>>, fillcolor="#e58139"] ;
11 -> 13 ;
14 [label=<tcp.dstport &le; 264.0<br/>gini = 0.002<br/>samples = 289773<br/>value = [289436, 337]<br/>class = y<SUB>0</SUB>>, fillcolor="#e58139"] ;
10 -> 14 ;
15 [label=<ip.ttl &le; 63.0<br/>gini = 0.016<br/>samples = 35558<br/>value = [35277, 281]<br/>class = y<SUB>0</SUB>>, fillcolor="#e5823b"] ;
14 -> 15 ;
16 [label=<gini = 0.0<br/>samples = 281<br/>value = [0, 281]<br/>class = y<SUB>1</SUB>>, fillcolor="#399de5"] ;
15 -> 16 ;
17 [label=<gini = 0.0<br/>samples = 35277<br/>value = [35277, 0]<br/>class = y<SUB>0</SUB>>, fillcolor="#e58139"] ;
15 -> 17 ;
18 [label=<tcp.checksum &le; 2.5<br/>gini = 0.0<br/>samples = 254215<br/>value = [254159, 56]<br/>class = y<SUB>0</SUB>>, fillcolor="#e58139"] ;
14 -> 18 ;
19 [label=<ip.checksum &le; 37025.0<br/>gini = 0.444<br/>samples = 3<br/>value = [2, 1]<br/>class = y<SUB>0</SUB>>, fillcolor="#f2c09c"] ;
18 -> 19 ;
20 [label=<gini = 0.0<br/>samples = 2<br/>value = [2, 0]<br/>class = y<SUB>0</SUB>>, fillcolor="#e58139"] ;
19 -> 20 ;
21 [label=<gini = 0.0<br/>samples = 1<br/>value = [0, 1]<br/>class = y<SUB>1</SUB>>, fillcolor="#399de5"] ;
19 -> 21 ;
22 [label=<tcp.ack &le; 129.5<br/>gini = 0.0<br/>samples = 254212<br/>value = [254157, 55]<br/>class = y<SUB>0</SUB>>, fillcolor="#e58139"] ;
18 -> 22 ;
23 [label=<tcp.ack &le; 127.5<br/>gini = 0.002<br/>samples = 48566<br/>value = [48511, 55]<br/>class = y<SUB>0</SUB>>, fillcolor="#e58139"] ;
22 -> 23 ;
24 [label=<tcp.time_delta &le; 5.734<br/>gini = 0.002<br/>samples = 48543<br/>value = [48504, 39]<br/>class = y<SUB>0</SUB>>, fillcolor="#e58139"] ;
23 -> 24 ;
25 [label=<ip.ttl &le; 63.0<br/>gini = 0.001<br/>samples = 48494<br/>value = [48460, 34]<br/>class = y<SUB>0</SUB>>, fillcolor="#e58139"] ;
24 -> 25 ;
26 [label=<tcp.dstport &le; 2733.0<br/>gini = 0.013<br/>samples = 5405<br/>value = [5371, 34]<br/>class = y<SUB>0</SUB>>, fillcolor="#e5823a"] ;
25 -> 26 ;
27 [label=<gini = 0.0<br/>samples = 34<br/>value = [0, 34]<br/>class = y<SUB>1</SUB>>, fillcolor="#399de5"] ;
26 -> 27 ;
28 [label=<gini = 0.0<br/>samples = 5371<br/>value = [5371, 0]<br/>class = y<SUB>0</SUB>>, fillcolor="#e58139"] ;
26 -> 28 ;
29 [label=<gini = 0.0<br/>samples = 43089<br/>value = [43089, 0]<br/>class = y<SUB>0</SUB>>, fillcolor="#e58139"] ;
25 -> 29 ;
30 [label=<tcp.time_delta &le; 6.254<br/>gini = 0.183<br/>samples = 49<br/>value = [44, 5]<br/>class = y<SUB>0</SUB>>, fillcolor="#e88f50"] ;
24 -> 30 ;
31 [label=<gini = 0.0<br/>samples = 5<br/>value = [0, 5]<br/>class = y<SUB>1</SUB>>, fillcolor="#399de5"] ;
30 -> 31 ;
32 [label=<gini = 0.0<br/>samples = 44<br/>value = [44, 0]<br/>class = y<SUB>0</SUB>>, fillcolor="#e58139"] ;
30 -> 32 ;
33 [label=<tcp.dstport &le; 25055.5<br/>gini = 0.423<br/>samples = 23<br/>value = [7, 16]<br/>class = y<SUB>1</SUB>>, fillcolor="#90c8f0"] ;
23 -> 33 ;
34 [label=<gini = 0.0<br/>samples = 16<br/>value = [0, 16]<br/>class = y<SUB>1</SUB>>, fillcolor="#399de5"] ;
33 -> 34 ;
35 [label=<gini = 0.0<br/>samples = 7<br/>value = [7, 0]<br/>class = y<SUB>0</SUB>>, fillcolor="#e58139"] ;
33 -> 35 ;
36 [label=<gini = 0.0<br/>samples = 205646<br/>value = [205646, 0]<br/>class = y<SUB>0</SUB>>, fillcolor="#e58139"] ;
22 -> 36 ;
}